<?xml version="1.0"?>
<opencv_storage>
<cascade>
  <stageType>BOOST</stageType>
  <featureType>HAAR</featureType>
  <height>46</height>
  <width>38</width>
  <stageParams>
    <boostType>GAB</boostType>
    <minHitRate>9.9500000476837158e-01</minHitRate>
    <maxFalseAlarm>5.0000000000000000e-01</maxFalseAlarm>
    <weightTrimRate>9.4999998807907104e-01</weightTrimRate>
    <maxDepth>1</maxDepth>
    <maxWeakCount>100</maxWeakCount></stageParams>
  <featureParams>
    <maxCatCount>0</maxCatCount>
    <featSize>1</featSize>
    <mode>BASIC</mode></featureParams>
  <stageNum>12</stageNum>
  <stages>
    <!-- stage 0 -->
    <_>
      <maxWeakCount>2</maxWeakCount>
      <stageThreshold>-1.5578083693981171e-01</stageThreshold>
      <weakClassifiers>
        <_>
          <internalNodes>
            0 -1 28 3.5428792238235474e-02</internalNodes>
          <leafValues>
            -9.6347033977508545e-01 9.5121949911117554e-01</leafValues></_>
        <_>
          <internalNodes>
            0 -1 6 1.9054563716053963e-02</internalNodes>
          <leafValues>
            -9.5452904701232910e-01 8.0768948793411255e-01</leafValues></_></weakClassifiers></_>
    <!-- stage 1 -->
    <_>
      <maxWeakCount>3</maxWeakCount>
      <stageThreshold>-1.1445525884628296e+00</stageThreshold>
      <weakClassifiers>
        <_>
          <internalNodes>
            0 -1 30 -2.2537555545568466e-02</internalNodes>
          <leafValues>
            9.4594591856002808e-01 -8.9427310228347778e-01</leafValues></_>
        <_>
          <internalNodes>
            0 -1 22 -5.4739573970437050e-03</internalNodes>
          <leafValues>
            7.3497557640075684e-01 -8.5950839519500732e-01</leafValues></_>
        <_>
          <internalNodes>
            0 -1 14 3.1785871833562851e-03</internalNodes>
          <leafValues>
            -9.7425150871276855e-01 6.0922890901565552e-01</leafValues></_></weakClassifiers></_>
    <!-- stage 2 -->
    <_>
      <maxWeakCount>3</maxWeakCount>
      <stageThreshold>-1.0134001970291138e+00</stageThreshold>
      <weakClassifiers>
        <_>
          <internalNodes>
            0 -1 23 1.1350573599338531e-01</internalNodes>
          <leafValues>
            -9.6330273151397705e-01 9.2771083116531372e-01</leafValues></_>
        <_>
          <internalNodes>
            0 -1 15 -8.3595640957355499e-02</internalNodes>
          <leafValues>
            7.8526067733764648e-01 -8.4355551004409790e-01</leafValues></_>
        <_>
          <internalNodes>
            0 -1 18 5.3506195545196533e-02</internalNodes>
          <leafValues>
            -8.3535814285278320e-01 8.0749058723449707e-01</leafValues></_></weakClassifiers></_>
    <!-- stage 3 -->
    <_>
      <maxWeakCount>3</maxWeakCount>
      <stageThreshold>-7.5818860530853271e-01</stageThreshold>
      <weakClassifiers>
        <_>
          <internalNodes>
            0 -1 2 6.5050587058067322e-02</internalNodes>
          <leafValues>
            -9.3518519401550293e-01 8.1176471710205078e-01</leafValues></_>
        <_>
          <internalNodes>
            0 -1 19 1.7499093711376190e-01</internalNodes>
          <leafValues>
            -7.9929566383361816e-01 7.9566723108291626e-01</leafValues></_>
        <_>
          <internalNodes>
            0 -1 0 -6.5507426857948303e-02</internalNodes>
          <leafValues>
            9.7629225254058838e-01 -6.0806751251220703e-01</leafValues></_></weakClassifiers></_>
    <!-- stage 4 -->
    <_>
      <maxWeakCount>3</maxWeakCount>
      <stageThreshold>-1.1912627220153809e+00</stageThreshold>
      <weakClassifiers>
        <_>
          <internalNodes>
            0 -1 26 -4.9926973879337311e-02</internalNodes>
          <leafValues>
            6.7088609933853149e-01 -8.3783781528472900e-01</leafValues></_>
        <_>
          <internalNodes>
            0 -1 8 1.5965558588504791e-02</internalNodes>
          <leafValues>
            -7.9836672544479370e-01 5.6907904148101807e-01</leafValues></_>
        <_>
          <internalNodes>
            0 -1 27 -4.9733342602849007e-03</internalNodes>
          <leafValues>
            4.4494190812110901e-01 -1.</leafValues></_></weakClassifiers></_>
    <!-- stage 5 -->
    <_>
      <maxWeakCount>3</maxWeakCount>
      <stageThreshold>-8.1350004673004150e-01</stageThreshold>
      <weakClassifiers>
        <_>
          <internalNodes>
            0 -1 13 -6.7364968359470367e-02</internalNodes>
          <leafValues>
            8.0327868461608887e-01 -7.5833332538604736e-01</leafValues></_>
        <_>
          <internalNodes>
            0 -1 9 1.5141574665904045e-02</internalNodes>
          <leafValues>
            -7.4057030677795410e-01 6.8192428350448608e-01</leafValues></_>
        <_>
          <internalNodes>
            0 -1 24 3.9135862141847610e-02</internalNodes>
          <leafValues>
            -6.9547665119171143e-01 6.8540364503860474e-01</leafValues></_></weakClassifiers></_>
    <!-- stage 6 -->
    <_>
      <maxWeakCount>3</maxWeakCount>
      <stageThreshold>-9.7557133436203003e-01</stageThreshold>
      <weakClassifiers>
        <_>
          <internalNodes>
            0 -1 29 -6.7917093634605408e-02</internalNodes>
          <leafValues>
            5.6097561120986938e-01 -8.1735157966613770e-01</leafValues></_>
        <_>
          <internalNodes>
            0 -1 5 2.0330835133790970e-02</internalNodes>
          <leafValues>
            -5.9229576587677002e-01 7.9042530059814453e-01</leafValues></_>
        <_>
          <internalNodes>
            0 -1 34 1.0496773757040501e-03</internalNodes>
          <leafValues>
            4.3407601118087769e-01 -9.5645046234130859e-01</leafValues></_></weakClassifiers></_>
    <!-- stage 7 -->
    <_>
      <maxWeakCount>3</maxWeakCount>
      <stageThreshold>-9.5131278038024902e-01</stageThreshold>
      <weakClassifiers>
        <_>
          <internalNodes>
            0 -1 12 2.0190680027008057e-01</internalNodes>
          <leafValues>
            -8.4905660152435303e-01 5.2808988094329834e-01</leafValues></_>
        <_>
          <internalNodes>
            0 -1 32 -3.0747588723897934e-02</internalNodes>
          <leafValues>
            8.2945102453231812e-01 -6.1883282661437988e-01</leafValues></_>
        <_>
          <internalNodes>
            0 -1 35 2.1504396863747388e-04</internalNodes>
          <leafValues>
            5.1657664775848389e-01 -9.0318715572357178e-01</leafValues></_></weakClassifiers></_>
    <!-- stage 8 -->
    <_>
      <maxWeakCount>4</maxWeakCount>
      <stageThreshold>-1.1376874446868896e+00</stageThreshold>
      <weakClassifiers>
        <_>
          <internalNodes>
            0 -1 4 1.2672239542007446e-01</internalNodes>
          <leafValues>
            -9.5348834991455078e-01 2.4031007289886475e-01</leafValues></_>
        <_>
          <internalNodes>
            0 -1 31 -3.4556187689304352e-02</internalNodes>
          <leafValues>
            7.6035201549530029e-01 -6.2394315004348755e-01</leafValues></_>
        <_>
          <internalNodes>
            0 -1 7 1.9160535186529160e-02</internalNodes>
          <leafValues>
            -5.1432085037231445e-01 7.9178303480148315e-01</leafValues></_>
        <_>
          <internalNodes>
            0 -1 17 1.4638250693678856e-02</internalNodes>
          <leafValues>
            -5.0936251878738403e-01 9.5406490564346313e-01</leafValues></_></weakClassifiers></_>
    <!-- stage 9 -->
    <_>
      <maxWeakCount>5</maxWeakCount>
      <stageThreshold>-1.1999371051788330e+00</stageThreshold>
      <weakClassifiers>
        <_>
          <internalNodes>
            0 -1 10 4.0278647094964981e-02</internalNodes>
          <leafValues>
            -6.9841271638870239e-01 8.7755101919174194e-01</leafValues></_>
        <_>
          <internalNodes>
            0 -1 1 -3.0919276177883148e-02</internalNodes>
          <leafValues>
            7.2103452682495117e-01 -6.0755187273025513e-01</leafValues></_>
        <_>
          <internalNodes>
            0 -1 3 -7.3925219476222992e-03</internalNodes>
          <leafValues>
            5.5846381187438965e-01 -7.4902129173278809e-01</leafValues></_>
        <_>
          <internalNodes>
            0 -1 33 -8.4242265074863099e-06</internalNodes>
          <leafValues>
            4.8114952445030212e-01 -9.2907863855361938e-01</leafValues></_>
        <_>
          <internalNodes>
            0 -1 16 -3.7120503839105368e-04</internalNodes>
          <leafValues>
            -9.7577250003814697e-01 3.7389925122261047e-01</leafValues></_></weakClassifiers></_>
    <!-- stage 10 -->
    <_>
      <maxWeakCount>3</maxWeakCount>
      <stageThreshold>-3.5294163227081299e-01</stageThreshold>
      <weakClassifiers>
        <_>
          <internalNodes>
            0 -1 33 -1.3468986435327679e-04</internalNodes>
          <leafValues>
            -8.8421052694320679e-01 3.1531530618667603e-01</leafValues></_>
        <_>
          <internalNodes>
            0 -1 11 -1.5044254250824451e-03</internalNodes>
          <leafValues>
            3.1280159950256348e-01 -9.3416076898574829e-01</leafValues></_>
        <_>
          <internalNodes>
            0 -1 36 -4.3979840120300651e-04</internalNodes>
          <leafValues>
            -9.8105859756469727e-01 3.1434118747711182e-01</leafValues></_></weakClassifiers></_>
    <!-- stage 11 -->
    <_>
      <maxWeakCount>3</maxWeakCount>
      <stageThreshold>-7.7387255430221558e-01</stageThreshold>
      <weakClassifiers>
        <_>
          <internalNodes>
            0 -1 25 -6.8805426359176636e-02</internalNodes>
          <leafValues>
            6.3934427499771118e-01 -7.1666663885116577e-01</leafValues></_>
        <_>
          <internalNodes>
            0 -1 20 2.2901406511664391e-02</internalNodes>
          <leafValues>
            -5.0269979238510132e-01 8.2933813333511353e-01</leafValues></_>
        <_>
          <internalNodes>
            0 -1 21 -3.3916681422851980e-04</internalNodes>
          <leafValues>
            -1. 4.4549387693405151e-01</leafValues></_></weakClassifiers></_></stages>
  <features>
    <_>
      <rects>
        <_>
          0 8 10 38 -1.</_>
        <_>
          5 8 5 38 2.</_></rects>
      <tilted>0</tilted></_>
    <_>
      <rects>
        <_>
          0 12 12 13 -1.</_>
        <_>
          6 12 6 13 2.</_></rects>
      <tilted>0</tilted></_>
    <_>
      <rects>
        <_>
          0 18 26 16 -1.</_>
        <_>
          0 18 13 8 2.</_>
        <_>
          13 26 13 8 2.</_></rects>
      <tilted>0</tilted></_>
    <_>
      <rects>
        <_>
          3 11 26 4 -1.</_>
        <_>
          3 13 26 2 2.</_></rects>
      <tilted>0</tilted></_>
    <_>
      <rects>
        <_>
          3 22 28 18 -1.</_>
        <_>
          3 28 28 6 3.</_></rects>
      <tilted>0</tilted></_>
    <_>
      <rects>
        <_>
          4 9 6 28 -1.</_>
        <_>
          7 9 3 28 2.</_></rects>
      <tilted>0</tilted></_>
    <_>
      <rects>
        <_>
          4 13 10 26 -1.</_>
        <_>
          4 13 5 13 2.</_>
        <_>
          9 26 5 13 2.</_></rects>
      <tilted>0</tilted></_>
    <_>
      <rects>
        <_>
          4 25 8 10 -1.</_>
        <_>
          8 25 4 10 2.</_></rects>
      <tilted>0</tilted></_>
    <_>
      <rects>
        <_>
          4 28 15 9 -1.</_>
        <_>
          9 28 5 9 3.</_></rects>
      <tilted>0</tilted></_>
    <_>
      <rects>
        <_>
          4 29 15 8 -1.</_>
        <_>
          9 29 5 8 3.</_></rects>
      <tilted>0</tilted></_>
    <_>
      <rects>
        <_>
          7 5 23 9 -1.</_>
        <_>
          7 8 23 3 3.</_></rects>
      <tilted>0</tilted></_>
    <_>
      <rects>
        <_>
          7 13 23 9 -1.</_>
        <_>
          7 16 23 3 3.</_></rects>
      <tilted>0</tilted></_>
    <_>
      <rects>
        <_>
          7 20 23 21 -1.</_>
        <_>
          7 27 23 7 3.</_></rects>
      <tilted>0</tilted></_>
    <_>
      <rects>
        <_>
          7 32 23 8 -1.</_>
        <_>
          7 36 23 4 2.</_></rects>
      <tilted>0</tilted></_>
    <_>
      <rects>
        <_>
          8 7 10 10 -1.</_>
        <_>
          13 7 5 10 2.</_></rects>
      <tilted>0</tilted></_>
    <_>
      <rects>
        <_>
          8 8 17 21 -1.</_>
        <_>
          8 15 17 7 3.</_></rects>
      <tilted>0</tilted></_>
    <_>
      <rects>
        <_>
          9 11 6 18 -1.</_>
        <_>
          12 11 3 18 2.</_></rects>
      <tilted>0</tilted></_>
    <_>
      <rects>
        <_>
          9 38 16 6 -1.</_>
        <_>
          9 40 16 2 3.</_></rects>
      <tilted>0</tilted></_>
    <_>
      <rects>
        <_>
          10 26 22 15 -1.</_>
        <_>
          10 31 22 5 3.</_></rects>
      <tilted>0</tilted></_>
    <_>
      <rects>
        <_>
          12 19 17 24 -1.</_>
        <_>
          12 27 17 8 3.</_></rects>
      <tilted>0</tilted></_>
    <_>
      <rects>
        <_>
          12 30 11 12 -1.</_>
        <_>
          12 34 11 4 3.</_></rects>
      <tilted>0</tilted></_>
    <_>
      <rects>
        <_>
          12 38 12 4 -1.</_>
        <_>
          18 38 6 4 2.</_></rects>
      <tilted>0</tilted></_>
    <_>
      <rects>
        <_>
          15 11 7 6 -1.</_>
        <_>
          15 14 7 3 2.</_></rects>
      <tilted>0</tilted></_>
    <_>
      <rects>
        <_>
          17 19 11 24 -1.</_>
        <_>
          17 27 11 8 3.</_></rects>
      <tilted>0</tilted></_>
    <_>
      <rects>
        <_>
          19 6 18 18 -1.</_>
        <_>
          19 6 9 9 2.</_>
        <_>
          28 15 9 9 2.</_></rects>
      <tilted>0</tilted></_>
    <_>
      <rects>
        <_>
          19 14 9 15 -1.</_>
        <_>
          19 19 9 5 3.</_></rects>
      <tilted>0</tilted></_>
    <_>
      <rects>
        <_>
          19 15 8 15 -1.</_>
        <_>
          19 20 8 5 3.</_></rects>
      <tilted>0</tilted></_>
    <_>
      <rects>
        <_>
          19 16 18 6 -1.</_>
        <_>
          19 19 18 3 2.</_></rects>
      <tilted>0</tilted></_>
    <_>
      <rects>
        <_>
          20 22 5 18 -1.</_>
        <_>
          20 28 5 6 3.</_></rects>
      <tilted>0</tilted></_>
    <_>
      <rects>
        <_>
          24 7 5 27 -1.</_>
        <_>
          24 16 5 9 3.</_></rects>
      <tilted>0</tilted></_>
    <_>
      <rects>
        <_>
          24 20 14 12 -1.</_>
        <_>
          24 20 7 6 2.</_>
        <_>
          31 26 7 6 2.</_></rects>
      <tilted>0</tilted></_>
    <_>
      <rects>
        <_>
          26 25 12 19 -1.</_>
        <_>
          30 25 4 19 3.</_></rects>
      <tilted>0</tilted></_>
    <_>
      <rects>
        <_>
          26 27 12 13 -1.</_>
        <_>
          30 27 4 13 3.</_></rects>
      <tilted>0</tilted></_>
    <_>
      <rects>
        <_>
          26 32 2 2 -1.</_>
        <_>
          26 33 2 1 2.</_></rects>
      <tilted>0</tilted></_>
    <_>
      <rects>
        <_>
          33 11 2 12 -1.</_>
        <_>
          33 15 2 4 3.</_></rects>
      <tilted>0</tilted></_>
    <_>
      <rects>
        <_>
          34 15 1 10 -1.</_>
        <_>
          34 20 1 5 2.</_></rects>
      <tilted>0</tilted></_>
    <_>
      <rects>
        <_>
          37 18 1 12 -1.</_>
        <_>
          37 22 1 4 3.</_></rects>
      <tilted>0</tilted></_></features></cascade>
</opencv_storage>
