<?xml version="1.0"?>
<opencv_storage>
<cascade>
  <stageType>BOOST</stageType>
  <featureType>HAAR</featureType>
  <height>46</height>
  <width>38</width>
  <stageParams>
    <boostType>GAB</boostType>
    <minHitRate>9.9500000476837158e-01</minHitRate>
    <maxFalseAlarm>5.0000000000000000e-01</maxFalseAlarm>
    <weightTrimRate>9.4999998807907104e-01</weightTrimRate>
    <maxDepth>1</maxDepth>
    <maxWeakCount>100</maxWeakCount></stageParams>
  <featureParams>
    <maxCatCount>0</maxCatCount>
    <featSize>1</featSize>
    <mode>BASIC</mode></featureParams>
  <stageNum>14</stageNum>
  <stages>
    <!-- stage 0 -->
    <_>
      <maxWeakCount>3</maxWeakCount>
      <stageThreshold>-9.5556122064590454e-01</stageThreshold>
      <weakClassifiers>
        <_>
          <internalNodes>
            0 -1 25 -3.9507769048213959e-02</internalNodes>
          <leafValues>
            8.6206895112991333e-01 -9.6610170602798462e-01</leafValues></_>
        <_>
          <internalNodes>
            0 -1 31 4.0268875658512115e-02</internalNodes>
          <leafValues>
            -8.5583353042602539e-01 8.9956414699554443e-01</leafValues></_>
        <_>
          <internalNodes>
            0 -1 7 1.6677433624863625e-02</internalNodes>
          <leafValues>
            -9.0054172277450562e-01 8.6637407541275024e-01</leafValues></_></weakClassifiers></_>
    <!-- stage 1 -->
    <_>
      <maxWeakCount>3</maxWeakCount>
      <stageThreshold>-9.1702723503112793e-01</stageThreshold>
      <weakClassifiers>
        <_>
          <internalNodes>
            0 -1 33 -2.4985821917653084e-02</internalNodes>
          <leafValues>
            8.4810125827789307e-01 -8.8108110427856445e-01</leafValues></_>
        <_>
          <internalNodes>
            0 -1 28 6.7199334502220154e-02</internalNodes>
          <leafValues>
            -7.0188188552856445e-01 9.2580258846282959e-01</leafValues></_>
        <_>
          <internalNodes>
            0 -1 5 -8.1441663205623627e-03</internalNodes>
          <leafValues>
            6.6593575477600098e-01 -8.2044303417205811e-01</leafValues></_></weakClassifiers></_>
    <!-- stage 2 -->
    <_>
      <maxWeakCount>3</maxWeakCount>
      <stageThreshold>-9.9211990833282471e-01</stageThreshold>
      <weakClassifiers>
        <_>
          <internalNodes>
            0 -1 23 8.7736576795578003e-02</internalNodes>
          <leafValues>
            -9.5454543828964233e-01 8.1818181276321411e-01</leafValues></_>
        <_>
          <internalNodes>
            0 -1 24 -2.2554304450750351e-02</internalNodes>
          <leafValues>
            7.6149636507034302e-01 -8.0186295509338379e-01</leafValues></_>
        <_>
          <internalNodes>
            0 -1 8 1.7899859696626663e-02</internalNodes>
          <leafValues>
            -7.4625134468078613e-01 7.6428848505020142e-01</leafValues></_></weakClassifiers></_>
    <!-- stage 3 -->
    <_>
      <maxWeakCount>3</maxWeakCount>
      <stageThreshold>-7.1378427743911743e-01</stageThreshold>
      <weakClassifiers>
        <_>
          <internalNodes>
            0 -1 18 1.8248219788074493e-01</internalNodes>
          <leafValues>
            -9.5604395866394043e-01 9.5121949911117554e-01</leafValues></_>
        <_>
          <internalNodes>
            0 -1 19 -6.8716049194335938e-02</internalNodes>
          <leafValues>
            1. -7.0522993803024292e-01</leafValues></_>
        <_>
          <internalNodes>
            0 -1 9 4.8384390771389008e-02</internalNodes>
          <leafValues>
            -6.2929898500442505e-01 9.4748961925506592e-01</leafValues></_></weakClassifiers></_>
    <!-- stage 4 -->
    <_>
      <maxWeakCount>2</maxWeakCount>
      <stageThreshold>-4.6805983781814575e-01</stageThreshold>
      <weakClassifiers>
        <_>
          <internalNodes>
            0 -1 26 -1.0774275660514832e-01</internalNodes>
          <leafValues>
            7.5000000000000000e-01 -8.4782606363296509e-01</leafValues></_>
        <_>
          <internalNodes>
            0 -1 21 8.1152305938303471e-04</internalNodes>
          <leafValues>
            -1. 3.7976625561714172e-01</leafValues></_></weakClassifiers></_>
    <!-- stage 5 -->
    <_>
      <maxWeakCount>3</maxWeakCount>
      <stageThreshold>-1.3253717422485352e+00</stageThreshold>
      <weakClassifiers>
        <_>
          <internalNodes>
            0 -1 14 -6.3573941588401794e-02</internalNodes>
          <leafValues>
            7.5609755516052246e-01 -8.6813187599182129e-01</leafValues></_>
        <_>
          <internalNodes>
            0 -1 32 -6.2872078269720078e-03</internalNodes>
          <leafValues>
            5.0552278757095337e-01 -9.1324901580810547e-01</leafValues></_>
        <_>
          <internalNodes>
            0 -1 17 -4.4167645683046430e-06</internalNodes>
          <leafValues>
            4.5600917935371399e-01 -8.7239682674407959e-01</leafValues></_></weakClassifiers></_>
    <!-- stage 6 -->
    <_>
      <maxWeakCount>2</maxWeakCount>
      <stageThreshold>-1.8280607461929321e-01</stageThreshold>
      <weakClassifiers>
        <_>
          <internalNodes>
            0 -1 36 -3.3240541815757751e-02</internalNodes>
          <leafValues>
            8.5964912176132202e-01 -7.0048308372497559e-01</leafValues></_>
        <_>
          <internalNodes>
            0 -1 27 -1.7875079065561295e-02</internalNodes>
          <leafValues>
            5.1767700910568237e-01 -9.4170588254928589e-01</leafValues></_></weakClassifiers></_>
    <!-- stage 7 -->
    <_>
      <maxWeakCount>2</maxWeakCount>
      <stageThreshold>-3.5853242874145508e-01</stageThreshold>
      <weakClassifiers>
        <_>
          <internalNodes>
            0 -1 15 -1.0105249285697937e-01</internalNodes>
          <leafValues>
            8.8059699535369873e-01 -7.8680205345153809e-01</leafValues></_>
        <_>
          <internalNodes>
            0 -1 4 1.9686673476826400e-04</internalNodes>
          <leafValues>
            4.2826959490776062e-01 -8.9875268936157227e-01</leafValues></_></weakClassifiers></_>
    <!-- stage 8 -->
    <_>
      <maxWeakCount>2</maxWeakCount>
      <stageThreshold>-5.4450905323028564e-01</stageThreshold>
      <weakClassifiers>
        <_>
          <internalNodes>
            0 -1 3 3.5629745572805405e-02</internalNodes>
          <leafValues>
            -8.5628741979598999e-01 4.8453608155250549e-01</leafValues></_>
        <_>
          <internalNodes>
            0 -1 37 1.8828113097697496e-03</internalNodes>
          <leafValues>
            3.1177833676338196e-01 -9.4805175065994263e-01</leafValues></_></weakClassifiers></_>
    <!-- stage 9 -->
    <_>
      <maxWeakCount>2</maxWeakCount>
      <stageThreshold>-4.0134707093238831e-01</stageThreshold>
      <weakClassifiers>
        <_>
          <internalNodes>
            0 -1 2 1.3325739419087768e-03</internalNodes>
          <leafValues>
            3.1746032834053040e-01 -9.8550724983215332e-01</leafValues></_>
        <_>
          <internalNodes>
            0 -1 6 1.2842707335948944e-02</internalNodes>
          <leafValues>
            -7.1880739927291870e-01 7.1027231216430664e-01</leafValues></_></weakClassifiers></_>
    <!-- stage 10 -->
    <_>
      <maxWeakCount>2</maxWeakCount>
      <stageThreshold>-1.7797425389289856e-01</stageThreshold>
      <weakClassifiers>
        <_>
          <internalNodes>
            0 -1 13 -4.9668405205011368e-02</internalNodes>
          <leafValues>
            8.4313726425170898e-01 -6.5258216857910156e-01</leafValues></_>
        <_>
          <internalNodes>
            0 -1 16 -8.9588388800621033e-04</internalNodes>
          <leafValues>
            -1. 4.7460791468620300e-01</leafValues></_></weakClassifiers></_>
    <!-- stage 11 -->
    <_>
      <maxWeakCount>4</maxWeakCount>
      <stageThreshold>-8.2541018724441528e-01</stageThreshold>
      <weakClassifiers>
        <_>
          <internalNodes>
            0 -1 11 -5.0856694579124451e-02</internalNodes>
          <leafValues>
            1. -5.8590310811996460e-01</leafValues></_>
        <_>
          <internalNodes>
            0 -1 0 -1.0913034202530980e-03</internalNodes>
          <leafValues>
            -9.3288815021514893e-01 4.3397796154022217e-01</leafValues></_>
        <_>
          <internalNodes>
            0 -1 20 -1.7361388308927417e-03</internalNodes>
          <leafValues>
            -1. 3.4034717082977295e-01</leafValues></_>
        <_>
          <internalNodes>
            0 -1 34 3.6901340354233980e-04</internalNodes>
          <leafValues>
            3.5303384065628052e-01 -1.</leafValues></_></weakClassifiers></_>
    <!-- stage 12 -->
    <_>
      <maxWeakCount>3</maxWeakCount>
      <stageThreshold>-5.6647789478302002e-01</stageThreshold>
      <weakClassifiers>
        <_>
          <internalNodes>
            0 -1 30 -2.8155170381069183e-02</internalNodes>
          <leafValues>
            5.3086417913436890e-01 -7.5956284999847412e-01</leafValues></_>
        <_>
          <internalNodes>
            0 -1 35 -8.8117592036724091e-02</internalNodes>
          <leafValues>
            1. -4.6733239293098450e-01</leafValues></_>
        <_>
          <internalNodes>
            0 -1 1 -2.6055663824081421e-02</internalNodes>
          <leafValues>
            7.8661161661148071e-01 -6.3000965118408203e-01</leafValues></_></weakClassifiers></_>
    <!-- stage 13 -->
    <_>
      <maxWeakCount>4</maxWeakCount>
      <stageThreshold>-4.3462067842483521e-01</stageThreshold>
      <weakClassifiers>
        <_>
          <internalNodes>
            0 -1 22 -5.3774453699588776e-02</internalNodes>
          <leafValues>
            6.5625000000000000e-01 -6.8999999761581421e-01</leafValues></_>
        <_>
          <internalNodes>
            0 -1 10 -1.3913745991885662e-02</internalNodes>
          <leafValues>
            4.4005468487739563e-01 -8.4779912233352661e-01</leafValues></_>
        <_>
          <internalNodes>
            0 -1 29 -5.8046117192134261e-04</internalNodes>
          <leafValues>
            -9.8664849996566772e-01 3.5530132055282593e-01</leafValues></_>
        <_>
          <internalNodes>
            0 -1 12 3.6422789096832275e-02</internalNodes>
          <leafValues>
            -5.3997665643692017e-01 8.4491747617721558e-01</leafValues></_></weakClassifiers></_></stages>
  <features>
    <_>
      <rects>
        <_>
          0 7 5 9 -1.</_>
        <_>
          0 10 5 3 3.</_></rects>
      <tilted>0</tilted></_>
    <_>
      <rects>
        <_>
          0 12 10 15 -1.</_>
        <_>
          5 12 5 15 2.</_></rects>
      <tilted>0</tilted></_>
    <_>
      <rects>
        <_>
          2 6 3 12 -1.</_>
        <_>
          2 10 3 4 3.</_></rects>
      <tilted>0</tilted></_>
    <_>
      <rects>
        <_>
          3 14 12 22 -1.</_>
        <_>
          3 14 6 11 2.</_>
        <_>
          9 25 6 11 2.</_></rects>
      <tilted>0</tilted></_>
    <_>
      <rects>
        <_>
          3 20 32 4 -1.</_>
        <_>
          3 22 32 2 2.</_></rects>
      <tilted>0</tilted></_>
    <_>
      <rects>
        <_>
          4 10 27 4 -1.</_>
        <_>
          4 12 27 2 2.</_></rects>
      <tilted>0</tilted></_>
    <_>
      <rects>
        <_>
          4 29 8 6 -1.</_>
        <_>
          8 29 4 6 2.</_></rects>
      <tilted>0</tilted></_>
    <_>
      <rects>
        <_>
          5 10 8 30 -1.</_>
        <_>
          5 10 4 15 2.</_>
        <_>
          9 25 4 15 2.</_></rects>
      <tilted>0</tilted></_>
    <_>
      <rects>
        <_>
          5 27 8 11 -1.</_>
        <_>
          9 27 4 11 2.</_></rects>
      <tilted>0</tilted></_>
    <_>
      <rects>
        <_>
          6 29 19 15 -1.</_>
        <_>
          6 34 19 5 3.</_></rects>
      <tilted>0</tilted></_>
    <_>
      <rects>
        <_>
          7 11 20 12 -1.</_>
        <_>
          7 15 20 4 3.</_></rects>
      <tilted>0</tilted></_>
    <_>
      <rects>
        <_>
          7 34 19 6 -1.</_>
        <_>
          7 37 19 3 2.</_></rects>
      <tilted>0</tilted></_>
    <_>
      <rects>
        <_>
          8 5 22 9 -1.</_>
        <_>
          8 8 22 3 3.</_></rects>
      <tilted>0</tilted></_>
    <_>
      <rects>
        <_>
          8 34 24 9 -1.</_>
        <_>
          8 37 24 3 3.</_></rects>
      <tilted>0</tilted></_>
    <_>
      <rects>
        <_>
          9 8 21 12 -1.</_>
        <_>
          9 14 21 6 2.</_></rects>
      <tilted>0</tilted></_>
    <_>
      <rects>
        <_>
          9 27 18 16 -1.</_>
        <_>
          9 35 18 8 2.</_></rects>
      <tilted>0</tilted></_>
    <_>
      <rects>
        <_>
          10 11 4 17 -1.</_>
        <_>
          12 11 2 17 2.</_></rects>
      <tilted>0</tilted></_>
    <_>
      <rects>
        <_>
          10 32 1 2 -1.</_>
        <_>
          10 33 1 1 2.</_></rects>
      <tilted>0</tilted></_>
    <_>
      <rects>
        <_>
          11 19 22 24 -1.</_>
        <_>
          11 27 22 8 3.</_></rects>
      <tilted>0</tilted></_>
    <_>
      <rects>
        <_>
          11 29 25 12 -1.</_>
        <_>
          11 35 25 6 2.</_></rects>
      <tilted>0</tilted></_>
    <_>
      <rects>
        <_>
          11 37 14 6 -1.</_>
        <_>
          18 37 7 6 2.</_></rects>
      <tilted>0</tilted></_>
    <_>
      <rects>
        <_>
          12 5 6 13 -1.</_>
        <_>
          15 5 3 13 2.</_></rects>
      <tilted>0</tilted></_>
    <_>
      <rects>
        <_>
          13 32 15 8 -1.</_>
        <_>
          13 36 15 4 2.</_></rects>
      <tilted>0</tilted></_>
    <_>
      <rects>
        <_>
          15 22 13 18 -1.</_>
        <_>
          15 28 13 6 3.</_></rects>
      <tilted>0</tilted></_>
    <_>
      <rects>
        <_>
          16 16 9 12 -1.</_>
        <_>
          16 20 9 4 3.</_></rects>
      <tilted>0</tilted></_>
    <_>
      <rects>
        <_>
          17 8 5 24 -1.</_>
        <_>
          17 16 5 8 3.</_></rects>
      <tilted>0</tilted></_>
    <_>
      <rects>
        <_>
          18 11 11 21 -1.</_>
        <_>
          18 18 11 7 3.</_></rects>
      <tilted>0</tilted></_>
    <_>
      <rects>
        <_>
          20 8 4 14 -1.</_>
        <_>
          20 15 4 7 2.</_></rects>
      <tilted>0</tilted></_>
    <_>
      <rects>
        <_>
          21 20 6 21 -1.</_>
        <_>
          21 27 6 7 3.</_></rects>
      <tilted>0</tilted></_>
    <_>
      <rects>
        <_>
          22 3 6 9 -1.</_>
        <_>
          24 3 2 9 3.</_></rects>
      <tilted>0</tilted></_>
    <_>
      <rects>
        <_>
          22 17 6 12 -1.</_>
        <_>
          22 21 6 4 3.</_></rects>
      <tilted>0</tilted></_>
    <_>
      <rects>
        <_>
          22 22 6 18 -1.</_>
        <_>
          22 28 6 6 3.</_></rects>
      <tilted>0</tilted></_>
    <_>
      <rects>
        <_>
          23 13 4 10 -1.</_>
        <_>
          23 18 4 5 2.</_></rects>
      <tilted>0</tilted></_>
    <_>
      <rects>
        <_>
          23 19 12 16 -1.</_>
        <_>
          23 19 6 8 2.</_>
        <_>
          29 27 6 8 2.</_></rects>
      <tilted>0</tilted></_>
    <_>
      <rects>
        <_>
          23 23 3 13 -1.</_>
        <_>
          24 23 1 13 3.</_></rects>
      <tilted>0</tilted></_>
    <_>
      <rects>
        <_>
          26 9 12 30 -1.</_>
        <_>
          32 9 6 30 2.</_></rects>
      <tilted>0</tilted></_>
    <_>
      <rects>
        <_>
          26 24 12 16 -1.</_>
        <_>
          30 24 4 16 3.</_></rects>
      <tilted>0</tilted></_>
    <_>
      <rects>
        <_>
          34 17 3 22 -1.</_>
        <_>
          34 28 3 11 2.</_></rects>
      <tilted>0</tilted></_></features></cascade>
</opencv_storage>
